{
  "feature_dim": 16,
  "hidden_dim": 64,
  "gate": [
    0.6321577429771423,
    0.6245232820510864,
    0.6165629029273987,
    0.6335852742195129,
    0.6157567501068115,
    0.5857633948326111,
    0.5929551720619202,
    0.6141157150268555,
    0.6130532622337341,
    0.6026257276535034,
    0.6222472786903381,
    0.622453510761261,
    0.6234982013702393,
    0.6239880919456482,
    0.622453510761261,
    0.6091449856758118
  ],
  "layers": [
    {
      "name": "enc_0",
      "type": "linear",
      "weight": [
        [
          -0.17219839990139008,
          -0.23101744055747986,
          0.004526421893388033,
          -0.13331569731235504,
          0.22147899866104126,
          0.02050352282822132,
          0.05504199489951134,
          0.15788599848747253,
          -0.07177369296550751,
          0.16503404080867767,
          0.007810839917510748,
          -0.061231981962919235,
          0.11108624935150146,
          0.22307370603084564,
          -0.08572874218225479,
          -0.10193419456481934
        ],
        [
          0.14607633650302887,
          -0.056509099900722504,
          0.047195255756378174,
          -0.04649117588996887,
          -0.0676146149635315,
          -0.05327751114964485,
          0.10638026148080826,
          0.03522941470146179,
          -0.03534360229969025,
          0.056172456592321396,
          -0.16429388523101807,
          0.2018655687570572,
          -0.06273818761110306,
          0.11376117914915085,
          0.003983921371400356,
          0.184716135263443
        ],
        [
          -0.22320562601089478,
          -0.22456204891204834,
          -0.04927705228328705,
          -0.030764879658818245,
          -0.15098418295383453,
          0.15364371240139008,
          0.21161939203739166,
          -0.03481234610080719,
          0.16023437678813934,
          0.16629746556282043,
          -0.055999141186475754,
          -0.05232828110456467,
          0.08583822846412659,
          -0.1593446582555771,
          0.08249012380838394,
          0.03481435775756836
        ],
        [
          0.26563218235969543,
          0.11371857672929764,
          -0.10317660868167877,
          0.031475335359573364,
          0.010668180882930756,
          0.21005286276340485,
          0.18539535999298096,
          0.14713719487190247,
          0.06278056651353836,
          0.027563244104385376,
          -0.05706924572587013,
          -0.05427553504705429,
          0.04861045628786087,
          -0.1986781507730484,
          0.18699298799037933,
          -0.10613735020160675
        ],
        [
          -0.26363855600357056,
          -0.20826920866966248,
          0.18679040670394897,
          -0.12893794476985931,
          -0.10041466355323792,
          -0.008714545518159866,
          -0.011907346546649933,
          -0.06911960244178772,
          -0.03531457483768463,
          -0.012575958855450153,
          0.11926352977752686,
          -0.06679399311542511,
          -0.21931082010269165,
          0.3216225504875183,
          0.03440215438604355,
          -0.11030846834182739
        ],
        [
          0.1888449490070343,
          0.1304420679807663,
          0.22583208978176117,
          0.25297483801841736,
          -0.1848297119140625,
          -0.15038980543613434,
          0.07888288795948029,
          0.004979871679097414,
          -0.021496685221791267,
          -0.14477510750293732,
          0.24803808331489563,
          -0.039434973150491714,
          -0.15014533698558807,
          -0.015789007768034935,
          0.2293240875005722,
          -0.0649552121758461
        ],
        [
          -0.2510780990123749,
          -0.1607096791267395,
          0.2165457308292389,
          0.22396329045295715,
          0.04402005672454834,
          -0.20226769149303436,
          0.1490083634853363,
          -0.042202178388834,
          -0.19875921308994293,
          -0.18562434613704681,
          0.1297292858362198,
          -0.14165616035461426,
          0.16686870157718658,
          -0.07839218527078629,
          -0.12462707608938217,
          0.2149704098701477
        ],
        [
          0.07719773799180984,
          -0.18312163650989532,
          -0.10288699716329575,
          0.28226205706596375,
          0.09551283717155457,
          0.07334013283252716,
          -0.20972159504890442,
          0.025775523856282234,
          -0.11464856564998627,
          0.22762027382850647,
          0.16184002161026,
          -0.15759025514125824,
          -0.03714992105960846,
          -0.18634025752544403,
          -0.13381636142730713,
          -0.23690487444400787
        ],
        [
          0.026130493730306625,
          -0.15251179039478302,
          -0.045297060161828995,
          -0.0017662207828834653,
          0.23621344566345215,
          -0.06815522164106369,
          0.004555817693471909,
          -0.04194103926420212,
          0.15294311940670013,
          0.09491617232561111,
          0.1290414035320282,
          -0.12353473156690598,
          0.22506973147392273,
          -0.03641585633158684,
          0.20621506869792938,
          -0.06920849531888962
        ],
        [
          -0.0363229438662529,
          -0.15226738154888153,
          -0.029901305213570595,
          0.16596336662769318,
          -0.1357717365026474,
          -0.20293943583965302,
          -0.0194865670055151,
          -0.17599418759346008,
          -0.010127399116754532,
          -0.18451803922653198,
          -0.17508700489997864,
          -0.2354036122560501,
          0.09812525659799576,
          0.03397979214787483,
          0.04641516134142876,
          0.020337937399744987
        ],
        [
          -0.06241922453045845,
          0.07572320848703384,
          0.041107360273599625,
          -0.2806372046470642,
          -0.09608989208936691,
          0.16685637831687927,
          -0.03323066979646683,
          0.0371912345290184,
          0.26082900166511536,
          0.13745680451393127,
          -0.1830807775259018,
          -0.16941235959529877,
          0.12701855599880219,
          -0.1425044685602188,
          0.02794860489666462,
          0.1936178058385849
        ],
        [
          0.14105603098869324,
          0.14750497043132782,
          -0.1915370523929596,
          0.2601979076862335,
          0.1025565043091774,
          0.07306104898452759,
          0.03457151725888252,
          -0.335575670003891,
          -0.1708270162343979,
          -0.038619935512542725,
          -0.031192725524306297,
          -0.20992136001586914,
          0.25229933857917786,
          -0.1825031042098999,
          -0.14548081159591675,
          0.26206648349761963
        ],
        [
          -0.08509479463100433,
          -0.04469990357756615,
          0.04140310361981392,
          -0.20815904438495636,
          0.05600670352578163,
          -0.02077603153884411,
          -0.03184308111667633,
          -0.15523938834667206,
          -0.0885387435555458,
          0.01014791615307331,
          0.1352388560771942,
          0.18931944668293,
          0.13852068781852722,
          0.01889723166823387,
          -0.032791756093502045,
          -0.23209042847156525
        ],
        [
          0.20040294528007507,
          0.1613677442073822,
          0.1440727859735489,
          -0.22245463728904724,
          0.035092368721961975,
          0.19368986785411835,
          0.08707360923290253,
          0.1669711321592331,
          -0.07860929518938065,
          -0.12801548838615417,
          0.16701295971870422,
          0.23880301415920258,
          0.0015702672535553575,
          -0.027209514752030373,
          -0.19248683750629425,
          0.046869270503520966
        ],
        [
          0.029500406235456467,
          0.09286187589168549,
          -0.12266422063112259,
          0.09456700086593628,
          -0.02153799682855606,
          -0.08216764032840729,
          -0.08454467356204987,
          0.04810419678688049,
          -0.24413172900676727,
          0.09745404124259949,
          0.05189022794365883,
          -0.22325386106967926,
          -0.2500482499599457,
          -0.14628078043460846,
          -0.02906242571771145,
          0.16498738527297974
        ],
        [
          -0.2930583655834198,
          0.1478131264448166,
          0.09679597616195679,
          -0.0894261822104454,
          0.11795976758003235,
          0.09841453284025192,
          -0.193461611866951,
          -0.2220565527677536,
          0.03789563104510307,
          -0.09833189845085144,
          -0.2426808774471283,
          0.017095979303121567,
          0.2219344675540924,
          0.09073659032583237,
          0.07696552574634552,
          -0.09265809506177902
        ],
        [
          -0.14209343492984772,
          -0.022262342274188995,
          0.061241794377565384,
          0.05879660323262215,
          0.20227429270744324,
          0.021198974922299385,
          0.20774206519126892,
          -0.14817634224891663,
          -0.10157382488250732,
          -0.1821109652519226,
          0.23984026908874512,
          0.0560930110514164,
          0.02748718112707138,
          0.25297725200653076,
          -0.14823895692825317,
          0.17008836567401886
        ],
        [
          0.12107215076684952,
          0.0727086067199707,
          0.1729094386100769,
          0.1581123173236847,
          -0.17958956956863403,
          0.05690417066216469,
          -0.09517727047204971,
          0.22325274348258972,
          0.08476133644580841,
          -0.16048911213874817,
          0.04899051785469055,
          -0.19927935302257538,
          -0.12581506371498108,
          -0.13131727278232574,
          -0.1770275980234146,
          0.007868836633861065
        ],
        [
          -0.02484053745865822,
          0.021725673228502274,
          -0.17847660183906555,
          0.15738943219184875,
          -0.013650747016072273,
          -0.017868779599666595,
          0.08107055723667145,
          0.1872931271791458,
          -0.2311389297246933,
          0.27177152037620544,
          0.23577727377414703,
          -0.0018596876179799438,
          -0.19740207493305206,
          -0.002121594035997987,
          0.09160559624433517,
          -0.2506076693534851
        ],
        [
          -0.14306531846523285,
          0.10351881384849548,
          -0.11171633005142212,
          0.2958593964576721,
          0.18751846253871918,
          0.20350390672683716,
          -0.0825788602232933,
          -0.17165112495422363,
          -0.08397745341062546,
          -0.20398633182048798,
          0.14619655907154083,
          0.19906054437160492,
          -0.24858728051185608,
          0.08403746038675308,
          0.2489863783121109,
          -0.09769675135612488
        ],
        [
          -0.08444970101118088,
          0.09425751864910126,
          0.1867820918560028,
          0.09710870683193207,
          -0.1277626007795334,
          0.011589459143579006,
          0.11600153148174286,
          -0.12938523292541504,
          0.3211064040660858,
          0.2111886441707611,
          0.09865520149469376,
          -0.08420271426439285,
          -0.16143205761909485,
          -0.1962633579969406,
          0.08476666361093521,
          -0.23314139246940613
        ],
        [
          -0.1518523097038269,
          -0.13899590075016022,
          -0.2457282394170761,
          -0.012784235179424286,
          0.20229464769363403,
          0.10945981740951538,
          -0.08233217149972916,
          0.20049728453159332,
          0.0688982680439949,
          -0.060536548495292664,
          0.04965674504637718,
          -0.1996382623910904,
          0.13904406130313873,
          0.04794314503669739,
          0.07813671976327896,
          -0.10904678702354431
        ],
        [
          0.12182679772377014,
          -0.23599709570407867,
          0.08339109271764755,
          0.06483888626098633,
          -0.04442783445119858,
          -0.20271405577659607,
          -0.03193654119968414,
          0.14780882000923157,
          -0.18147413432598114,
          -0.021055568009614944,
          0.21306496858596802,
          -0.1998014897108078,
          -0.010768149048089981,
          -0.026771297678351402,
          -0.0356568917632103,
          0.07480175793170929
        ],
        [
          0.2312372922897339,
          0.07429022341966629,
          0.041814059019088745,
          -0.022292548790574074,
          -0.1697859764099121,
          -0.13362662494182587,
          -0.15368007123470306,
          0.032075848430395126,
          -0.09336720407009125,
          0.10104528814554214,
          -0.1503223329782486,
          0.24356909096240997,
          0.032056774944067,
          0.156579852104187,
          0.034381501376628876,
          -0.07177577912807465
        ],
        [
          -0.09500744938850403,
          0.03610999137163162,
          0.23804651200771332,
          -0.05863850191235542,
          -0.04533223435282707,
          0.1617399901151657,
          0.1662355363368988,
          -0.12591783702373505,
          0.060126349329948425,
          -0.18998216092586517,
          -0.19610266387462616,
          -0.024678634479641914,
          -0.10662516951560974,
          -0.16348496079444885,
          0.19837458431720734,
          0.09322995692491531
        ],
        [
          0.24965107440948486,
          -0.04009328782558441,
          -0.18383274972438812,
          0.009255150333046913,
          -0.07728167623281479,
          0.12080172449350357,
          -0.20622952282428741,
          0.13294009864330292,
          0.1113036498427391,
          0.22299490869045258,
          0.013244976289570332,
          -0.019505109637975693,
          -0.04378657415509224,
          0.04199708253145218,
          0.10807554423809052,
          0.09632398933172226
        ],
        [
          -0.2421094924211502,
          0.17284515500068665,
          -0.030332006514072418,
          -0.2243591845035553,
          0.1830994039773941,
          0.1738625466823578,
          -0.017131777480244637,
          0.06614527106285095,
          0.13301058113574982,
          -0.011330164968967438,
          -0.023355094715952873,
          0.17088906466960907,
          -0.002298790728673339,
          -0.11932583898305893,
          0.06920064985752106,
          -0.11015211045742035
        ],
        [
          0.16562657058238983,
          -0.14116938412189484,
          -0.017228761687874794,
          -0.08989094197750092,
          -0.20942740142345428,
          -0.0016230421606451273,
          0.025014633312821388,
          0.14489203691482544,
          -0.09043851494789124,
          0.009355561807751656,
          -0.11525415629148483,
          -0.17751093208789825,
          -0.09294158965349197,
          0.02882693149149418,
          0.10154599696397781,
          0.09910336136817932
        ],
        [
          -0.25791412591934204,
          -0.07940316945314407,
          0.206650048494339,
          -0.0699000135064125,
          -0.08643826097249985,
          0.02821241319179535,
          -0.09521929174661636,
          -0.22804054617881775,
          0.13224245607852936,
          -0.22443325817584991,
          -0.18512733280658722,
          0.036317579448223114,
          0.17553550004959106,
          -0.10019201040267944,
          0.1881735473871231,
          -0.04868892952799797
        ],
        [
          -0.2622867226600647,
          -0.2628853917121887,
          0.10237551480531693,
          0.0818924829363823,
          -0.0407567024230957,
          0.027279110625386238,
          0.0615011602640152,
          0.06029345467686653,
          -0.03692067787051201,
          -0.015616072341799736,
          -0.18995915353298187,
          -0.12422483414411545,
          -0.04742944613099098,
          0.12373074889183044,
          -0.24844644963741302,
          0.08315000683069229
        ],
        [
          0.16377055644989014,
          -0.021629609167575836,
          0.21445979177951813,
          0.2943527102470398,
          -0.23307940363883972,
          -0.1790039986371994,
          -0.2786770761013031,
          -0.023277897387742996,
          0.03347555175423622,
          -0.1910020411014557,
          -0.03687426447868347,
          0.05306287854909897,
          -0.12731635570526123,
          -0.0018755939090624452,
          0.19951023161411285,
          -0.08851607888936996
        ],
        [
          -0.2590996325016022,
          0.18675217032432556,
          0.18983101844787598,
          -0.2791895568370819,
          -0.13951465487480164,
          -0.17817649245262146,
          0.0960584506392479,
          0.18849438428878784,
          -0.06730140745639801,
          -0.006583439651876688,
          -0.23117367923259735,
          0.237628772854805,
          0.061539553105831146,
          -0.2453620731830597,
          0.03779499977827072,
          -0.22314290702342987
        ],
        [
          -0.06512139737606049,
          -0.011497454717755318,
          -0.167428120970726,
          -0.13956895470619202,
          -0.05076305568218231,
          -0.20305748283863068,
          -0.099627785384655,
          0.15620332956314087,
          0.04281120002269745,
          -0.08798650652170181,
          -0.21461448073387146,
          0.2345535308122635,
          0.1461782157421112,
          -0.052645277231931686,
          0.1201765164732933,
          -0.03809656202793121
        ],
        [
          -0.15078561007976532,
          0.09093033522367477,
          0.12556560337543488,
          -0.0234551802277565,
          0.0011021833634003997,
          -0.1876383125782013,
          -0.2224506288766861,
          -0.0033414391800761223,
          0.07554925233125687,
          0.1519261747598648,
          -0.08109712600708008,
          -0.1684059351682663,
          -0.15447430312633514,
          -0.01051564235240221,
          0.014972987584769726,
          0.0167747363448143
        ],
        [
          -0.05693638324737549,
          0.11188505589962006,
          -0.11043192446231842,
          0.25159457325935364,
          0.2057938277721405,
          0.07178984582424164,
          -0.0066954572685062885,
          -0.22020447254180908,
          -0.23994244635105133,
          0.19878487288951874,
          -0.13451750576496124,
          -0.014748665504157543,
          -0.23814602196216583,
          -0.15521319210529327,
          0.1605505496263504,
          -0.1341000646352768
        ],
        [
          -0.11422917991876602,
          0.08511283993721008,
          0.03220471367239952,
          0.18994122743606567,
          -0.10198419541120529,
          0.012995908968150616,
          -0.1274341344833374,
          -0.08387099206447601,
          -0.2018483728170395,
          0.001482454827055335,
          0.13287489116191864,
          0.0736725777387619,
          -0.22381256520748138,
          -0.029996439814567566,
          -0.008575184270739555,
          -0.010195273905992508
        ],
        [
          0.2967965006828308,
          -0.18701806664466858,
          -0.08277396112680435,
          0.09999267011880875,
          -0.04451523721218109,
          0.008213697001338005,
          -0.2728999853134155,
          -0.004347104579210281,
          0.04216444119811058,
          0.09766647964715958,
          0.05117425322532654,
          0.10065219551324844,
          -0.1366831660270691,
          0.07076000422239304,
          0.15929757058620453,
          0.14640957117080688
        ],
        [
          0.00038541137473657727,
          0.17428916692733765,
          0.16221481561660767,
          0.29139548540115356,
          -0.0036396137438714504,
          0.07530246675014496,
          0.08916004747152328,
          0.0794803649187088,
          0.16590318083763123,
          0.2322898656129837,
          0.11385037750005722,
          0.13727760314941406,
          -0.1601947396993637,
          -0.059755947440862656,
          0.17454193532466888,
          0.10281040519475937
        ],
        [
          -0.18195918202400208,
          -0.029387300834059715,
          -0.16075198352336884,
          -0.14169466495513916,
          -0.08414757251739502,
          -0.06059633940458298,
          0.006865620147436857,
          -0.043943412601947784,
          0.1386314183473587,
          -0.05115200951695442,
          0.1151946410536766,
          0.01773446425795555,
          -0.23700307309627533,
          -0.1393919438123703,
          -0.09288724511861801,
          -0.13045457005500793
        ],
        [
          -0.17830564081668854,
          -0.22809404134750366,
          0.2716781795024872,
          -0.1584804654121399,
          -0.12987208366394043,
          -0.06281299144029617,
          -0.1496955305337906,
          0.47336146235466003,
          0.0003504193446133286,
          -0.0722421184182167,
          0.16204598546028137,
          -0.07053311169147491,
          0.028170159086585045,
          0.01664004661142826,
          -0.22598709166049957,
          -0.17987331748008728
        ],
        [
          0.08346924930810928,
          -0.026461487635970116,
          -0.17903569340705872,
          -0.11059871315956116,
          -0.01461281068623066,
          -0.10506530851125717,
          0.10371185839176178,
          0.015981048345565796,
          -0.11152654141187668,
          0.13670797646045685,
          -0.11552967131137848,
          -0.039759907871484756,
          -0.07260236144065857,
          -0.06878608465194702,
          -0.10219530016183853,
          0.0980089083313942
        ],
        [
          -0.10225124657154083,
          0.1803964227437973,
          0.0067911469377577305,
          -0.05619995296001434,
          -0.11737295985221863,
          0.02493862621486187,
          -0.12058964371681213,
          0.09547647088766098,
          -0.08770713955163956,
          0.1322656124830246,
          -0.14000338315963745,
          0.22368113696575165,
          -0.15046507120132446,
          -0.10704712569713593,
          -0.12959516048431396,
          -0.020249638706445694
        ],
        [
          0.2516593039035797,
          -0.02639356441795826,
          -0.19935843348503113,
          0.126235231757164,
          -0.07164423167705536,
          -0.10658121109008789,
          0.10784601420164108,
          0.15289844572544098,
          -0.025272104889154434,
          0.01431412436068058,
          -0.173058420419693,
          -0.09083574265241623,
          -0.010487315244972706,
          0.11801120638847351,
          -0.12006288021802902,
          -0.06544938683509827
        ],
        [
          -0.19740760326385498,
          -0.06474330276250839,
          0.08028359711170197,
          0.07361600548028946,
          -0.18083518743515015,
          -0.08374455571174622,
          -0.11314412951469421,
          -0.18571670353412628,
          -0.23323993384838104,
          0.0024172374978661537,
          0.12381657212972641,
          -0.09674666076898575,
          -0.25881949067115784,
          0.03317216783761978,
          -0.14917558431625366,
          -0.1572006493806839
        ],
        [
          0.1421227753162384,
          0.024402804672718048,
          0.2024729698896408,
          -0.05636664852499962,
          0.053169287741184235,
          0.14998167753219604,
          0.07386315613985062,
          0.13113825023174286,
          -0.19246335327625275,
          0.017378292977809906,
          0.14082035422325134,
          -0.19018231332302094,
          -0.0746983215212822,
          0.022315755486488342,
          0.19652952253818512,
          0.008133675903081894
        ],
        [
          0.05606964975595474,
          0.0727204754948616,
          -0.04377948120236397,
          -0.2982604205608368,
          -0.03913772851228714,
          0.18774226307868958,
          -0.17941421270370483,
          -0.08026241511106491,
          -0.15549010038375854,
          -0.27340376377105713,
          -0.16170912981033325,
          0.0248215664178133,
          0.037297800183296204,
          0.22536025941371918,
          -0.15659384429454803,
          0.051481474190950394
        ],
        [
          -0.009220583364367485,
          0.19879093766212463,
          -0.13478219509124756,
          -0.16404931247234344,
          0.25212693214416504,
          0.12474943697452545,
          0.2340700626373291,
          0.21282970905303955,
          -0.039922624826431274,
          -0.054171863943338394,
          -0.05205652117729187,
          -0.037335895001888275,
          0.0031097594182938337,
          -0.16272567212581635,
          -0.041457001119852066,
          0.24168099462985992
        ],
        [
          -0.08520783483982086,
          -0.14520180225372314,
          0.20294031500816345,
          -0.09067579358816147,
          0.19735252857208252,
          0.12100574374198914,
          -0.10977370291948318,
          -0.08473289757966995,
          -0.07135223597288132,
          -0.22800956666469574,
          0.0142201604321599,
          -0.09466300159692764,
          0.12279269844293594,
          0.047749113291502,
          -0.24652831256389618,
          0.08984267711639404
        ],
        [
          -0.09982386976480484,
          -0.050483252853155136,
          0.0595996119081974,
          0.0840500146150589,
          -0.05188492313027382,
          0.06074399873614311,
          -0.06549423933029175,
          0.10930518060922623,
          -0.3569035530090332,
          -0.24222706258296967,
          0.26483166217803955,
          -0.0038063384126871824,
          -0.2171918749809265,
          0.19290201365947723,
          -0.030015891417860985,
          -0.17303888499736786
        ],
        [
          0.01769701950252056,
          -0.18585290014743805,
          0.09589879959821701,
          0.08504536002874374,
          0.12762777507305145,
          -0.15210416913032532,
          0.21516133844852448,
          -0.09282607585191727,
          0.2777535021305084,
          0.07298758625984192,
          0.18142187595367432,
          -0.16002415120601654,
          -0.17222478985786438,
          0.14330552518367767,
          -0.23411135375499725,
          0.09555203467607498
        ],
        [
          0.08834199607372284,
          0.20994654297828674,
          -0.040222812443971634,
          0.09607201814651489,
          -0.05667712911963463,
          0.1519908308982849,
          0.07208088040351868,
          0.14162367582321167,
          0.031081775203347206,
          0.2358495593070984,
          0.17354170978069305,
          0.18018008768558502,
          -0.14198888838291168,
          -0.16199637949466705,
          -0.018722977489233017,
          0.18770761787891388
        ],
        [
          -0.02882646769285202,
          0.10758335888385773,
          0.04095534235239029,
          -0.0007876356830820441,
          0.14037324488162994,
          -0.2467421442270279,
          -0.040579989552497864,
          -0.2165551334619522,
          -0.21762728691101074,
          -0.24190795421600342,
          0.08217267692089081,
          0.23816047608852386,
          0.16520553827285767,
          0.24186043441295624,
          -0.14827212691307068,
          -0.2383432537317276
        ],
        [
          0.26632407307624817,
          -0.14649435877799988,
          -0.11436295509338379,
          0.13590455055236816,
          0.20506979525089264,
          0.0754600390791893,
          -0.1878955215215683,
          -0.0768643319606781,
          -0.2564444839954376,
          -0.0548272430896759,
          -0.14053615927696228,
          0.16746927797794342,
          0.19031408429145813,
          0.0008247797377407551,
          -0.009232206270098686,
          0.025191185995936394
        ],
        [
          0.02655240334570408,
          -0.16613058745861053,
          0.1370857208967209,
          0.10732201486825943,
          -0.009378659538924694,
          -0.13150376081466675,
          -0.051661379635334015,
          0.21605120599269867,
          0.1654973328113556,
          0.11752770841121674,
          0.014815298840403557,
          0.06891150772571564,
          -0.06509865075349808,
          -0.10520646721124649,
          0.01882469281554222,
          0.1427897959947586
        ],
        [
          -0.14630794525146484,
          0.18147453665733337,
          0.0464334599673748,
          0.034814465790987015,
          0.21503470838069916,
          -0.22035592794418335,
          0.03259648010134697,
          -0.23359312117099762,
          0.16707496345043182,
          -0.24342334270477295,
          -0.19076623022556305,
          0.11677559465169907,
          0.19426433742046356,
          0.1519743949174881,
          0.04194587841629982,
          0.19644425809383392
        ],
        [
          -0.14090579748153687,
          -0.044259682297706604,
          -0.18896764516830444,
          -0.16085101664066315,
          -0.1958773136138916,
          0.17319872975349426,
          -0.033186301589012146,
          0.07536207884550095,
          0.04519263282418251,
          -0.131246879696846,
          -0.2726115584373474,
          0.1950392872095108,
          0.15457606315612793,
          0.18299861252307892,
          -0.05096373334527016,
          -0.13262158632278442
        ],
        [
          0.19318543374538422,
          0.11207745224237442,
          0.01046693604439497,
          -0.19075673818588257,
          0.025765227153897285,
          0.1585564911365509,
          -0.16863802075386047,
          -0.022507892921566963,
          -0.21722809970378876,
          -0.1113448366522789,
          0.2103615403175354,
          -0.018129970878362656,
          -0.24368609488010406,
          0.15112411975860596,
          0.11454873532056808,
          -0.061096951365470886
        ],
        [
          -0.03140098601579666,
          -0.18968063592910767,
          0.20685742795467377,
          -0.168770894408226,
          0.26838257908821106,
          -0.11474950611591339,
          -0.1120866984128952,
          0.06768035143613815,
          0.0934811681509018,
          -0.1607658565044403,
          0.005725459195673466,
          0.05822260305285454,
          -0.16024290025234222,
          0.15472842752933502,
          -0.2194434553384781,
          -0.04051376134157181
        ],
        [
          0.25398126244544983,
          -0.11777248233556747,
          0.21146273612976074,
          -0.2041764259338379,
          -0.18100015819072723,
          -0.1332613229751587,
          -0.1971181035041809,
          0.09594806283712387,
          0.23617856204509735,
          -0.17981937527656555,
          -0.21625609695911407,
          0.16932322084903717,
          0.013159889727830887,
          -0.07453155517578125,
          -0.035641394555568695,
          -0.1530238389968872
        ],
        [
          -0.0366186760365963,
          -0.20776265859603882,
          -0.198552668094635,
          0.11122169345617294,
          -0.08693685382604599,
          -0.1866849660873413,
          0.003829864552244544,
          -0.08769118785858154,
          -0.10484907031059265,
          0.10847321897745132,
          -0.15312926471233368,
          -0.11973147839307785,
          0.12523004412651062,
          0.11126403510570526,
          -0.03301086276769638,
          -0.1288265585899353
        ],
        [
          0.19103854894638062,
          0.049323100596666336,
          -0.007946576923131943,
          0.12333238869905472,
          0.10479219257831573,
          0.18869411945343018,
          0.16930504143238068,
          -0.07298386842012405,
          0.06743212044239044,
          -0.022318432107567787,
          -0.2779637575149536,
          0.05232321470975876,
          -0.14700645208358765,
          -0.06792927533388138,
          -0.1943831890821457,
          0.018204737454652786
        ],
        [
          -5.0390408432576805e-05,
          0.2747868299484253,
          0.225236713886261,
          -0.09772390127182007,
          -0.2546577453613281,
          -0.0735582634806633,
          -0.0650387778878212,
          0.10983968526124954,
          0.18239489197731018,
          -0.16823819279670715,
          0.1368994265794754,
          0.06747667491436005,
          0.016485393047332764,
          -0.043641358613967896,
          -0.19603218138217926,
          -0.13084091246128082
        ],
        [
          0.07364396005868912,
          0.25123992562294006,
          -0.17932535707950592,
          0.2575731575489044,
          0.08873097598552704,
          -0.1348920464515686,
          -0.13747210800647736,
          -0.10557226836681366,
          0.1887054443359375,
          0.1630040407180786,
          0.02623244747519493,
          -0.047136906534433365,
          0.2108697146177292,
          -0.06438107043504715,
          -0.13134250044822693,
          0.05652325600385666
        ],
        [
          0.2870875597000122,
          0.139774888753891,
          0.2970466911792755,
          0.2531002163887024,
          0.17793549597263336,
          -0.16014301776885986,
          -0.1510058045387268,
          0.04421844333410263,
          0.18178780376911163,
          -0.2055835872888565,
          -0.09768214821815491,
          0.057808052748441696,
          -0.18046076595783234,
          0.24404898285865784,
          0.048600468784570694,
          -0.13983820378780365
        ]
      ],
      "bias": [
        0.1506202071905136,
        0.1538001447916031,
        0.04507532715797424,
        0.10672913491725922,
        -0.08525683730840683,
        0.15566226840019226,
        0.22083278000354767,
        0.15518170595169067,
        -0.0007507450645789504,
        0.1361480951309204,
        -0.0026190460193902254,
        -0.22940382361412048,
        0.13062895834445953,
        0.21015486121177673,
        0.2009071260690689,
        0.15403079986572266,
        -0.081931933760643,
        -0.033026501536369324,
        -0.1412946879863739,
        -0.23816581070423126,
        -0.023494049906730652,
        0.20654141902923584,
        0.06717540323734283,
        -0.059458017349243164,
        0.057241544127464294,
        -0.012862571515142918,
        0.1446637213230133,
        0.11089874058961868,
        0.22357071936130524,
        0.1704423427581787,
        -0.18996092677116394,
        0.1734897792339325,
        0.15861868858337402,
        -0.09158766269683838,
        0.20124569535255432,
        -0.1488773375749588,
        -0.22250902652740479,
        -0.12332700192928314,
        -0.24584820866584778,
        -0.1710578352212906,
        0.15413063764572144,
        0.20143646001815796,
        0.15779060125350952,
        0.13231664896011353,
        -0.217220276594162,
        -0.0527767650783062,
        -0.12872996926307678,
        -0.16958238184452057,
        0.15035270154476166,
        -0.13584783673286438,
        0.22368979454040527,
        -0.14925341308116913,
        -0.17996846139431,
        -0.1207500547170639,
        -0.08358539640903473,
        -0.23486383259296417,
        0.08840587735176086,
        0.1527380645275116,
        -0.07605849206447601,
        0.2312445193529129,
        0.20958414673805237,
        -0.047605451196432114,
        -0.22397418320178986,
        0.14528121054172516
      ]
    },
    {
      "name": "ln_0",
      "type": "layernorm",
      "weight": [
        1.010682463645935,
        0.9705068469047546,
        1.0598117113113403,
        0.9899709224700928,
        1.0249212980270386,
        1.0045720338821411,
        0.9901487827301025,
        0.9699833989143372,
        1.0121492147445679,
        1.0106905698776245,
        0.9965787529945374,
        1.0759385824203491,
        1.0235764980316162,
        0.9687650203704834,
        0.9803876280784607,
        1.0014389753341675,
        1.0289745330810547,
        0.9718443155288696,
        1.0150110721588135,
        1.0187236070632935,
        1.0184333324432373,
        1.0438425540924072,
        0.9828622937202454,
        0.9793891310691833,
        0.9617673754692078,
        1.0294934511184692,
        1.0239479541778564,
        0.9641067981719971,
        0.994537889957428,
        1.0261701345443726,
        1.038910984992981,
        0.9872921705245972,
        1.037036418914795,
        1.0161235332489014,
        0.9631693959236145,
        1.0032432079315186,
        1.0225448608398438,
        1.0454342365264893,
        1.0338387489318848,
        1.0690516233444214,
        1.015998363494873,
        0.9755170345306396,
        1.0070688724517822,
        1.0176736116409302,
        0.9460711479187012,
        1.0127973556518555,
        1.0023632049560547,
        1.0438635349273682,
        1.0236048698425293,
        0.9479019641876221,
        1.0001987218856812,
        1.0314948558807373,
        0.9286161065101624,
        0.9505997896194458,
        0.987403392791748,
        1.028975486755371,
        1.0191730260849,
        1.0175861120224,
        0.9165037870407104,
        0.9966888427734375,
        0.9398411512374878,
        1.0187808275222778,
        0.9772507548332214,
        1.0228636264801025
      ],
      "bias": [
        0.00113241549115628,
        -0.026632782071828842,
        0.027464300394058228,
        -0.02517738752067089,
        -0.015069788321852684,
        -0.009622237645089626,
        -0.014722097665071487,
        0.006521756295114756,
        -0.0021866527386009693,
        -0.0027374408673495054,
        -0.004854169674217701,
        0.01681344397366047,
        0.009800033643841743,
        -0.0341939777135849,
        -0.022060483694076538,
        -0.004693968687206507,
        0.010460912249982357,
        0.04051162675023079,
        -0.012676909565925598,
        -0.01960071735084057,
        0.0001764663466019556,
        0.017069054767489433,
        -0.00980780366808176,
        0.08060744404792786,
        -0.014436054974794388,
        -0.0034892449621111155,
        0.006938928738236427,
        -0.02023147977888584,
        -0.020051416009664536,
        -0.00522747915238142,
        -0.03285282850265503,
        -0.0007461711065843701,
        0.033709436655044556,
        -0.028760606423020363,
        -0.010891061276197433,
        -0.0011542548891156912,
        -0.0263218991458416,
        0.037710171192884445,
        -0.0381208173930645,
        0.031120512634515762,
        0.006336367689073086,
        -0.03002128191292286,
        -0.010276402346789837,
        -0.023066073656082153,
        0.010771566070616245,
        0.008001423440873623,
        -0.00927482545375824,
        -0.0018502979073673487,
        0.0029892129823565483,
        0.027680814266204834,
        -0.004986267536878586,
        -0.0026566260494291782,
        0.00879853405058384,
        -0.012848309241235256,
        -0.01642500050365925,
        -0.04749719798564911,
        0.0019589189905673265,
        0.008162104524672031,
        0.009465815499424934,
        0.038137421011924744,
        -0.05342397838830948,
        0.009879378601908684,
        -0.007002750411629677,
        0.01839902065694332
      ]
    },
    {
      "name": "gelu_0",
      "type": "gelu"
    },
    {
      "name": "enc_1",
      "type": "linear",
      "weight": [
        [
          -0.14794552326202393,
          0.001834582770243287,
          -0.12588506937026978,
          0.07877261191606522,
          0.13627880811691284,
          -0.06557296216487885,
          -0.033347874879837036,
          0.04626899212598801,
          -0.1167500838637352,
          0.11146210134029388,
          -0.054432619363069534,
          0.1275549978017807,
          -0.05943805351853371,
          0.095465749502182,
          0.012670686468482018,
          -0.04061240702867508,
          -0.05044493079185486,
          0.014929091557860374,
          -0.04792923852801323,
          -0.030692409723997116,
          -0.05036093667149544,
          -0.14426253736019135,
          0.05245821550488472,
          0.08109566569328308,
          0.05054754391312599,
          0.1708149015903473,
          -0.054033175110816956,
          -0.0635484978556633,
          0.027185743674635887,
          -0.0655963197350502,
          -0.04344930499792099,
          -0.11926732957363129,
          0.028993716463446617,
          -0.11461129784584045,
          -0.00662565091624856,
          0.05581817030906677,
          0.08513115346431732,
          0.12973040342330933,
          -0.03134410083293915,
          0.013216754421591759,
          0.018349967896938324,
          0.1269994080066681,
          0.09092850983142853,
          -0.12406262010335922,
          -0.07380902022123337,
          -0.13250675797462463,
          -0.0810481607913971,
          -0.1094639003276825,
          0.07563043385744095,
          -0.03201922029256821,
          0.11471136659383774,
          -0.08198423683643341,
          -0.01973840221762657,
          -0.03922271355986595,
          -0.0276037584990263,
          -0.015871739014983177,
          0.02930436097085476,
          -0.11922069638967514,
          -0.025446416810154915,
          0.048807527869939804,
          -0.00294273579493165,
          0.05416427180171013,
          -0.09170664846897125,
          0.12842752039432526
        ],
        [
          -0.18717896938323975,
          -0.0414249449968338,
          -0.16820484399795532,
          0.09140145033597946,
          0.12146226316690445,
          -0.014804352074861526,
          -0.055508170276880264,
          0.08716684579849243,
          -0.024371279403567314,
          0.08898293972015381,
          -0.07196352630853653,
          -0.08745008707046509,
          -0.050554126501083374,
          0.11149513721466064,
          0.10591893643140793,
          -0.14398778975009918,
          -0.047118883579969406,
          0.060462962836027145,
          -0.05137220025062561,
          -0.0053479839116334915,
          -0.10905627906322479,
          -0.12425912171602249,
          0.08432574570178986,
          -0.07689626514911652,
          0.022526940330863,
          0.1241210401058197,
          0.03714834898710251,
          0.002742832526564598,
          0.0882808193564415,
          -0.14479339122772217,
          -0.11238380521535873,
          -0.125491201877594,
          0.019272368401288986,
          -0.09400162845849991,
          0.07530543953180313,
          -0.054491642862558365,
          -0.06131972000002861,
          0.032336678355932236,
          0.023044303059577942,
          0.008379781618714333,
          0.11572486907243729,
          -0.10127688199281693,
          0.0042581865563988686,
          -0.029827112331986427,
          -0.07230493426322937,
          -0.03433298319578171,
          -0.0006521295290440321,
          -0.09664836525917053,
          0.0714249238371849,
          -0.02198168635368347,
          0.12240497022867203,
          0.02837367355823517,
          -0.08023495227098465,
          0.030409030616283417,
          -0.0834563672542572,
          -0.028280047699809074,
          0.1608305722475052,
          -0.05559670552611351,
          -0.007167338393628597,
          -0.09900445491075516,
          0.031188832595944405,
          0.136428564786911,
          0.0011467656586319208,
          0.10241802781820297
        ],
        [
          0.036431655287742615,
          -0.05116104707121849,
          -0.10314364731311798,
          -0.06668946146965027,
          -0.007081964984536171,
          0.17601163685321808,
          0.09757421165704727,
          0.11876960098743439,
          -0.08331745862960815,
          0.0484519898891449,
          -0.02229582890868187,
          0.08203708380460739,
          -0.05903548002243042,
          0.08957959711551666,
          -0.002830983605235815,
          -0.06776898354291916,
          -0.0987122431397438,
          -0.07904073596000671,
          -0.08831658959388733,
          -0.0011041061952710152,
          -0.06953506171703339,
          0.08234137296676636,
          -0.04363076761364937,
          -0.0886247381567955,
          -0.011614608578383923,
          0.1330242156982422,
          -0.021647000685334206,
          -0.0666455626487732,
          0.014856518246233463,
          0.0024085354525595903,
          -0.07429412007331848,
          -0.07465805858373642,
          0.0543958880007267,
          -0.07982046902179718,
          0.009513062424957752,
          0.07813773304224014,
          0.024165915325284004,
          0.1589498072862625,
          -0.08861283212900162,
          0.07700817286968231,
          0.11157052963972092,
          -0.010542348027229309,
          -0.0641784593462944,
          -0.0604957714676857,
          -0.13039110600948334,
          0.026152996346354485,
          -0.0915561392903328,
          -0.055046603083610535,
          0.05295638367533684,
          -0.018366284668445587,
          -0.07161176204681396,
          0.07798471301794052,
          -0.13810352981090546,
          0.09338168054819107,
          -0.04884881526231766,
          0.020692333579063416,
          -0.09063194692134857,
          -0.11156470328569412,
          -0.05795875936746597,
          -0.15111255645751953,
          0.03754575923085213,
          0.020790433511137962,
          -0.08888279646635056,
          0.12425059080123901
        ],
        [
          -0.11230817437171936,
          0.12242160737514496,
          -0.15749981999397278,
          0.13873866200447083,
          0.030937865376472473,
          0.03699527680873871,
          -0.09391439706087112,
          0.02756120078265667,
          0.06493020057678223,
          -0.03565790504217148,
          -0.016887117177248,
          0.03111819177865982,
          -0.09842664003372192,
          0.12655025720596313,
          0.09087130427360535,
          -0.11840659379959106,
          0.031641408801078796,
          0.10825057327747345,
          -0.02748117968440056,
          -0.11490887403488159,
          -0.08824678510427475,
          0.00510457344353199,
          0.12937864661216736,
          0.13104811310768127,
          0.09058781713247299,
          0.017589403316378593,
          -0.03363301604986191,
          -0.06142200902104378,
          -0.05143164098262787,
          -0.01708974689245224,
          -0.06775745749473572,
          -0.04392929747700691,
          0.008989578112959862,
          0.0077563622035086155,
          -0.059560056775808334,
          -0.10968342423439026,
          0.061621494591236115,
          -0.01313494611531496,
          0.12776212394237518,
          -0.02203286997973919,
          -0.11149624735116959,
          -0.02560609020292759,
          0.07642032206058502,
          0.05325368791818619,
          0.08751258254051208,
          -0.015855833888053894,
          0.11601077765226364,
          -0.129649356007576,
          0.11523884534835815,
          -0.011180732399225235,
          -0.04871122166514397,
          0.12018615007400513,
          0.07223589718341827,
          -0.004883413203060627,
          0.026972651481628418,
          -0.0802306979894638,
          0.13070300221443176,
          -0.05368358641862869,
          0.01940743811428547,
          0.01142910122871399,
          -0.07292512059211731,
          0.0929456427693367,
          -0.1041378602385521,
          0.05724451318383217
        ],
        [
          -0.05624242499470711,
          -0.035947252064943314,
          0.0734369233250618,
          -0.08719940483570099,
          -0.08838559687137604,
          -0.07880531996488571,
          0.1220678761601448,
          0.04453206807374954,
          0.12646786868572235,
          0.12758378684520721,
          0.02996298298239708,
          -0.004051196854561567,
          0.14833034574985504,
          -0.08587246388196945,
          -0.0102000767365098,
          0.004611173179000616,
          0.1348508894443512,
          -0.043439872562885284,
          -0.1329413652420044,
          0.054172318428754807,
          -0.08231766521930695,
          0.007109405938535929,
          0.04465455934405327,
          -0.004608412738889456,
          0.06250825524330139,
          0.14851588010787964,
          0.1445506513118744,
          -0.06858277320861816,
          0.027741312980651855,
          0.04700223356485367,
          -0.0479867197573185,
          -0.10183390974998474,
          0.06105678156018257,
          -0.02117009460926056,
          0.018811538815498352,
          -0.12256491929292679,
          -0.1293068826198578,
          -0.08139055222272873,
          0.007134368177503347,
          -0.099906787276268,
          0.12377967685461044,
          0.06685382127761841,
          0.020111115649342537,
          -0.1266707479953766,
          -0.024855857715010643,
          0.015331142581999302,
          0.14984256029129028,
          -0.07002061605453491,
          -0.06833085417747498,
          -0.14661839604377747,
          0.09508868306875229,
          -0.10942239314317703,
          0.00933967623859644,
          0.10014546662569046,
          -0.06453025341033936,
          0.05805366486310959,
          0.03523240610957146,
          -0.020093310624361038,
          -0.08941918611526489,
          -0.15692059695720673,
          0.0011483464622870088,
          0.055901169776916504,
          0.010013818740844727,
          -0.08318927884101868
        ],
        [
          -0.10260721296072006,
          0.07004254311323166,
          0.160452201962471,
          0.1007729023694992,
          0.08751243352890015,
          -0.06353424489498138,
          0.07979707419872284,
          -0.031236771494150162,
          0.12686395645141602,
          0.17358465492725372,
          0.042139895260334015,
          0.10486294329166412,
          0.08104114979505539,
          -0.100025475025177,
          -0.014334139414131641,
          -0.08662793040275574,
          0.1408621221780777,
          0.027588097378611565,
          -0.045828644186258316,
          -0.14424000680446625,
          -0.1013154610991478,
          0.038709696382284164,
          0.07563672959804535,
          0.043025773018598557,
          0.03580646961927414,
          0.03384619578719139,
          0.06015290692448616,
          0.012622181326150894,
          0.03561314940452576,
          0.03612229600548744,
          0.05101471766829491,
          0.04745137691497803,
          -0.030716806650161743,
          -0.09943952411413193,
          0.09891162067651749,
          -0.10614614933729172,
          -0.14257360994815826,
          0.069973886013031,
          -0.022780148312449455,
          -0.0797305628657341,
          -0.004774948116391897,
          -0.017349179834127426,
          -0.06595006585121155,
          -0.06941109895706177,
          0.06368451565504074,
          0.06425024569034576,
          -0.00918610394001007,
          0.022303719073534012,
          -0.012242896482348442,
          0.06639496982097626,
          -0.03868614509701729,
          0.0648660734295845,
          -0.005376053974032402,
          -0.02807288058102131,
          -0.028919348493218422,
          -0.0876302719116211,
          0.05909476429224014,
          -0.0687452182173729,
          -0.002624581102281809,
          -0.013852674514055252,
          -0.06510549783706665,
          -0.053036030381917953,
          -0.022498970851302147,
          0.13505715131759644
        ],
        [
          -0.0391891673207283,
          0.04407782480120659,
          0.15285538136959076,
          -0.050592925399541855,
          -0.04899017885327339,
          -0.14942757785320282,
          -0.04823800176382065,
          0.06439365446567535,
          0.054030027240514755,
          0.15491493046283722,
          -0.05636849254369736,
          0.10361485183238983,
          0.060636382550001144,
          0.12798796594142914,
          -0.012105441652238369,
          0.09811750799417496,
          0.008040233515202999,
          0.041163861751556396,
          0.010801229625940323,
          -0.02198723331093788,
          0.11486922949552536,
          0.1570538878440857,
          0.06720421463251114,
          0.004945145919919014,
          0.025416020303964615,
          -0.038159459829330444,
          0.1396544724702835,
          -0.04204310476779938,
          0.11741206049919128,
          0.07729022949934006,
          0.03702380880713463,
          0.02873106859624386,
          0.14947277307510376,
          0.07893121242523193,
          0.14174698293209076,
          0.013693809509277344,
          0.035560086369514465,
          0.019138449802994728,
          0.05823509022593498,
          -0.020999383181333542,
          0.15648184716701508,
          0.011550377123057842,
          -0.009058251045644283,
          -0.04074718430638313,
          -0.04435848817229271,
          -0.09995012730360031,
          0.03188784793019295,
          -0.1252755969762802,
          -0.03971284255385399,
          0.015746193006634712,
          -0.010098862461745739,
          -0.00837482325732708,
          -0.0014393485616892576,
          0.06658194214105606,
          0.12558136880397797,
          -0.13088597357273102,
          0.010781806893646717,
          -0.04415065422654152,
          0.11233539879322052,
          0.08941104263067245,
          -0.03772033005952835,
          -0.04098620265722275,
          -0.0920536145567894,
          -0.1309473067522049
        ],
        [
          -0.009431863203644753,
          -0.048334043473005295,
          0.004204035270959139,
          0.06514487415552139,
          -0.11993183940649033,
          0.06540381908416748,
          0.11293010413646698,
          -0.03127649053931236,
          -0.10115601867437363,
          -0.1183285191655159,
          0.01334118191152811,
          -0.027171188965439796,
          -0.05487861484289169,
          0.10263658314943314,
          0.08260737359523773,
          0.02823011390864849,
          0.07009096443653107,
          -0.09195126593112946,
          -0.10903877764940262,
          -0.09505339711904526,
          0.1067194789648056,
          -0.015244227834045887,
          0.07934381067752838,
          0.04267193749547005,
          0.033663757145404816,
          0.09748996794223785,
          0.04746370017528534,
          0.0444084107875824,
          -0.09665630012750626,
          -0.08843968063592911,
          -0.13861724734306335,
          -0.14506013691425323,
          -0.2109604775905609,
          0.07263161242008209,
          -0.024966077879071236,
          0.09097625315189362,
          -0.01784580573439598,
          0.04099572077393532,
          0.005784193519502878,
          -0.013383434154093266,
          -0.12242241948843002,
          -0.0897953137755394,
          0.036766961216926575,
          0.007666310761123896,
          0.05613404139876366,
          -0.08217832446098328,
          0.0784592255949974,
          0.03777630999684334,
          0.037395067512989044,
          0.1031724289059639,
          -0.09296096861362457,
          -0.042307741940021515,
          0.10650549829006195,
          0.022420018911361694,
          0.12103936076164246,
          0.04629470035433769,
          -0.04492053762078285,
          -0.14059503376483917,
          -0.083757683634758,
          -0.012771094217896461,
          0.01645444706082344,
          -0.11144577711820602,
          0.051016684621572495,
          0.011548218317329884
        ],
        [
          0.08436276018619537,
          -0.03821947053074837,
          0.040428873151540756,
          -0.038903456181287766,
          -0.03901515528559685,
          -0.003271266585215926,
          -0.07875161617994308,
          -0.09315259754657745,
          -0.04715204983949661,
          0.04805326461791992,
          0.06387606263160706,
          0.08015704154968262,
          0.10385041683912277,
          0.08686820417642593,
          0.1394461691379547,
          -0.10302174091339111,
          0.12019073218107224,
          0.03721163049340248,
          0.03685328736901283,
          -0.07981365919113159,
          0.05574282631278038,
          -0.04236742854118347,
          0.029083319008350372,
          -0.16401779651641846,
          -0.018480710685253143,
          0.15874888002872467,
          0.11923333257436752,
          0.18200364708900452,
          -0.06445533782243729,
          0.07358638942241669,
          0.025302588939666748,
          0.1019846498966217,
          0.03728865832090378,
          -0.024241890758275986,
          -0.1483124941587448,
          -0.000941416306886822,
          0.02562241442501545,
          -0.1974504441022873,
          -0.04075130075216293,
          -0.0832768902182579,
          0.16722866892814636,
          -0.03599337115883827,
          0.06791466474533081,
          0.0064963651821017265,
          -0.1525891274213791,
          0.014651087112724781,
          -0.05788351967930794,
          -0.12829208374023438,
          0.019669638946652412,
          -0.12440375983715057,
          -0.07385791838169098,
          -0.043879639357328415,
          0.06848640739917755,
          -0.13627029955387115,
          0.039909228682518005,
          -0.06904024630784988,
          -0.06393688172101974,
          0.09024481475353241,
          -0.05824367702007294,
          0.09712082892656326,
          -0.04296875,
          0.05268225818872452,
          0.11562658846378326,
          0.048049017786979675
        ],
        [
          -8.765438542468473e-05,
          -0.05737067013978958,
          0.011582943610846996,
          -0.059411220252513885,
          -0.009313280694186687,
          0.07717834413051605,
          -0.051620278507471085,
          0.01817500777542591,
          -0.09876681119203568,
          0.07492803782224655,
          0.08535811305046082,
          -0.06656372547149658,
          0.13409383594989777,
          -0.012714809738099575,
          0.09711994975805283,
          0.05040552839636803,
          -0.007492097094655037,
          -0.12208609282970428,
          0.01998739130795002,
          -0.11837957054376602,
          -0.053992241621017456,
          -0.09165412187576294,
          -0.005847282707691193,
          0.04222876578569412,
          0.14116761088371277,
          -0.0575999990105629,
          -0.10977721214294434,
          0.1179451271891594,
          0.11279793083667755,
          -0.022943507879972458,
          -0.08878177404403687,
          0.06620793044567108,
          -0.09338837116956711,
          -0.021085446700453758,
          -0.04003524035215378,
          -0.06886778771877289,
          -0.03499876335263252,
          -0.03825591877102852,
          -0.07993733137845993,
          -0.11269066482782364,
          -0.11155493557453156,
          -0.04945581778883934,
          -0.08077803999185562,
          0.06363745033740997,
          0.01941615529358387,
          -0.12757349014282227,
          -0.08862706273794174,
          -0.011483130045235157,
          -0.006542944349348545,
          -0.11373652517795563,
          0.001700892113149166,
          -0.0568036325275898,
          -0.026815608143806458,
          -0.10641702264547348,
          0.1237948015332222,
          0.026543645188212395,
          -0.08602619171142578,
          0.096701480448246,
          -0.14513161778450012,
          -0.15578724443912506,
          0.11396605521440506,
          0.035781968384981155,
          0.06759784370660782,
          0.05757672339677811
        ],
        [
          -0.07951400429010391,
          0.10142765194177628,
          -0.11385983228683472,
          0.02687780372798443,
          -0.04231681302189827,
          0.14363746345043182,
          0.09813295304775238,
          -0.08855794370174408,
          0.039712920784950256,
          0.03223942965269089,
          -0.02881362847983837,
          0.06532437354326248,
          0.010452227666974068,
          0.09000344574451447,
          -0.12610214948654175,
          0.040997464209795,
          -0.10257653892040253,
          0.11835701018571854,
          0.02931506559252739,
          -0.19704878330230713,
          0.0063726771622896194,
          -0.0590248741209507,
          -0.07364257425069809,
          0.007790354546159506,
          0.014499973505735397,
          -0.11903537064790726,
          -0.10179999470710754,
          0.022313317283988,
          0.05039585754275322,
          -0.013696241192519665,
          -0.06908181309700012,
          -0.0486915297806263,
          -0.27705812454223633,
          -0.027438247576355934,
          0.06337685883045197,
          0.017908522859215736,
          0.08273843675851822,
          0.2028888314962387,
          0.170014426112175,
          0.1150633692741394,
          -0.1534826010465622,
          -0.08459675312042236,
          -0.030160177499055862,
          -0.1064852699637413,
          0.03740281984210014,
          -0.10712829232215881,
          -0.16361969709396362,
          0.06841813772916794,
          -0.10308469086885452,
          0.07549306750297546,
          -0.08515765517950058,
          -0.11164286732673645,
          0.029818985611200333,
          -0.07763643562793732,
          -0.005708709359169006,
          0.012894497253000736,
          0.007748548872768879,
          0.061132125556468964,
          -0.005122134927660227,
          -0.09219779819250107,
          0.06961584836244583,
          -0.06791403144598007,
          0.006437375210225582,
          0.005848998669534922
        ],
        [
          0.06635311990976334,
          0.09874944388866425,
          -0.1759558618068695,
          -0.09008682519197464,
          0.08809004724025726,
          -0.06330057978630066,
          0.07829651981592178,
          -0.07834850251674652,
          -0.11879701912403107,
          -0.05870618671178818,
          0.06432763487100601,
          -0.08030891418457031,
          -0.1338762491941452,
          0.12163908779621124,
          0.12766090035438538,
          -0.09975536167621613,
          0.010130784474313259,
          0.0766066387295723,
          -0.033417958766222,
          -0.08341354131698608,
          0.05618511140346527,
          0.0025518792681396008,
          0.004457044415175915,
          -0.10167112201452255,
          0.028575366362929344,
          0.012071331031620502,
          -0.09855148941278458,
          0.10240500420331955,
          -0.051389142870903015,
          -0.06931329518556595,
          -0.09565518796443939,
          -0.050078704953193665,
          0.1212754100561142,
          0.05077839270234108,
          0.07044412940740585,
          -0.06482785195112228,
          -0.03563197702169418,
          0.03512086719274521,
          0.01285807229578495,
          0.013539646752178669,
          0.09411531686782837,
          -0.040498796850442886,
          -0.06656227260828018,
          -8.26847244752571e-05,
          -0.013112189248204231,
          0.09469963610172272,
          0.06790383905172348,
          -0.07127448916435242,
          0.06966190785169601,
          0.07834364473819733,
          0.07149140536785126,
          -0.08116942644119263,
          -0.07839968055486679,
          0.1096692755818367,
          0.05675600469112396,
          -0.06172114610671997,
          0.05837865173816681,
          -0.0696609690785408,
          0.008195269852876663,
          0.03032105602324009,
          0.06622718274593353,
          0.02069578506052494,
          0.07277760654687881,
          0.028927700594067574
        ],
        [
          -0.10424195230007172,
          -0.10075928270816803,
          -0.04697684571146965,
          0.1064513698220253,
          0.05146462470293045,
          0.14233988523483276,
          -0.069476418197155,
          0.042386043816804886,
          0.024381740018725395,
          -0.12407410889863968,
          0.09155163913965225,
          -0.0096622034907341,
          -0.07752446830272675,
          0.12942355871200562,
          -0.05645604431629181,
          -0.0930883064866066,
          0.04443687945604324,
          0.10155822336673737,
          -0.03337796404957771,
          0.06010248884558678,
          -0.027592716738581657,
          0.06654662638902664,
          -0.05226997658610344,
          0.08962806314229965,
          0.06090490520000458,
          0.14662396907806396,
          -0.06095167621970177,
          0.054129693657159805,
          -0.05727117508649826,
          0.05955636501312256,
          0.047217775136232376,
          -0.03690940886735916,
          -0.09336291998624802,
          0.009042718447744846,
          -0.1007569208741188,
          -0.09538999199867249,
          -0.01546021644026041,
          0.03585606813430786,
          0.030316675081849098,
          -0.03226720541715622,
          -0.022591715678572655,
          -0.08309563249349594,
          0.010863121598958969,
          0.11210665851831436,
          0.07243219763040543,
          -0.10388091206550598,
          -0.022748954594135284,
          -0.05646287649869919,
          -0.09905891865491867,
          -0.0467820018529892,
          0.0636051744222641,
          0.009364851750433445,
          0.13079579174518585,
          0.057386115193367004,
          -0.10417637974023819,
          0.06365815550088882,
          0.06585780531167984,
          -0.08095955848693848,
          -0.0564972385764122,
          -0.12543217837810516,
          0.12475280463695526,
          -0.006023330148309469,
          -0.04223119467496872,
          0.09895068407058716
        ],
        [
          0.12163479626178741,
          -0.09090045839548111,
          0.100406713783741,
          -0.04202033579349518,
          0.07233516126871109,
          -0.0461818128824234,
          0.009554614312946796,
          -0.08976324647665024,
          0.024710534140467644,
          0.1418253481388092,
          0.025583360344171524,
          0.07902736961841583,
          0.09884130954742432,
          0.05263198912143707,
          0.05927562713623047,
          -0.016808487474918365,
          0.12632575631141663,
          0.06564081460237503,
          0.04573756828904152,
          -0.14742988348007202,
          -0.027642084285616875,
          -0.013361525721848011,
          -0.035700514912605286,
          0.0140849519520998,
          0.1033971905708313,
          -0.061118390411138535,
          0.04094318300485611,
          -0.06798732280731201,
          0.10652945935726166,
          0.16736775636672974,
          -0.04455822706222534,
          -0.12066016346216202,
          0.007874594070017338,
          -0.1579848825931549,
          0.09309548139572144,
          0.055755484849214554,
          -0.10138401389122009,
          -0.13644373416900635,
          0.027322445064783096,
          -0.06567585468292236,
          -0.06990989297628403,
          0.1007956862449646,
          0.07890298962593079,
          0.06381265819072723,
          -0.1724560707807541,
          -0.013797991909086704,
          -0.004619065206497908,
          -0.10252223908901215,
          0.0335480198264122,
          -0.09422644227743149,
          -0.06299760937690735,
          0.06665767729282379,
          -0.11667041480541229,
          -0.02959553338587284,
          0.12767383456230164,
          0.0030151880346238613,
          -0.04569774866104126,
          -0.05215783789753914,
          -0.08553198724985123,
          0.11589903384447098,
          0.07113313674926758,
          -0.17562958598136902,
          0.03427056968212128,
          -0.024960311129689217
        ],
        [
          0.17696821689605713,
          0.047535575926303864,
          0.040162667632102966,
          -0.07011265307664871,
          0.01944722607731819,
          0.004630898591130972,
          0.021969648078083992,
          -0.14148294925689697,
          0.12482604384422302,
          0.04327024146914482,
          0.08599716424942017,
          0.09328305721282959,
          0.05546927452087402,
          -0.10653102397918701,
          -0.060026057064533234,
          0.11775892972946167,
          0.12439897656440735,
          -0.04348823428153992,
          0.06734900176525116,
          0.038790225982666016,
          0.04955943673849106,
          0.12958192825317383,
          -0.06868952512741089,
          -0.10469762235879898,
          0.028002556413412094,
          0.08958154171705246,
          -0.021793652325868607,
          0.08060063421726227,
          0.11515922099351883,
          0.0487501360476017,
          0.008363243192434311,
          0.1468256562948227,
          0.00034700389369390905,
          -0.08973980695009232,
          -0.11046931892633438,
          -0.021716047078371048,
          -0.08077709376811981,
          -0.007517821155488491,
          0.06474783271551132,
          -0.05827726051211357,
          -0.057557959109544754,
          -0.06292510032653809,
          -0.06065161153674126,
          -0.12711551785469055,
          -0.03685329481959343,
          0.01624462567269802,
          -0.014542925171554089,
          -0.07407711446285248,
          -0.007332372013479471,
          -0.09682369977235794,
          -0.08944972604513168,
          -0.055938903242349625,
          -0.09660639613866806,
          -0.14391939342021942,
          0.1177523285150528,
          -0.12888072431087494,
          -0.18048197031021118,
          0.1113722175359726,
          0.07669707387685776,
          0.1320788860321045,
          0.07608477771282196,
          -0.09958157688379288,
          0.026708101853728294,
          0.012912288308143616
        ],
        [
          0.10073385387659073,
          0.05099401995539665,
          -0.00971511285752058,
          0.0032362716738134623,
          -0.03719208762049675,
          -0.019567858427762985,
          0.003813877934589982,
          -0.08635105192661285,
          0.08985952287912369,
          0.09861662983894348,
          -0.08019566535949707,
          0.008237408474087715,
          -0.09088700264692307,
          -0.004864707123488188,
          -0.05659148469567299,
          0.10461816191673279,
          0.013549428433179855,
          0.034174878150224686,
          -0.08460714668035507,
          0.09949927031993866,
          -0.0044901021756231785,
          -0.06528326869010925,
          0.026214448735117912,
          0.07905818521976471,
          0.12416746467351913,
          -0.034646760672330856,
          0.02500152587890625,
          -0.05982537567615509,
          0.10774701088666916,
          0.09983855485916138,
          -0.023343317210674286,
          0.0767955407500267,
          0.11195659637451172,
          -0.09887288510799408,
          0.03793631121516228,
          -0.061514049768447876,
          -0.04311378672719002,
          0.015533880330622196,
          0.01152756903320551,
          -0.05799989029765129,
          0.11112982779741287,
          0.09721098095178604,
          0.007593723013997078,
          -0.04860958084464073,
          -0.05762714147567749,
          -0.04392967000603676,
          -0.06996852904558182,
          -0.1229718029499054,
          -0.012719700112938881,
          0.08433405309915543,
          5.7874574849847704e-05,
          -0.06981516629457474,
          -0.0884600281715393,
          0.01748592220246792,
          0.06794122606515884,
          0.07657229900360107,
          -0.02078283205628395,
          -0.0539759024977684,
          0.08796140551567078,
          0.008517323061823845,
          -0.03977581113576889,
          0.03862561285495758,
          0.1380913108587265,
          -0.0690671056509018
        ],
        [
          -0.12219329923391342,
          0.0658927634358406,
          0.05076536536216736,
          0.1163930743932724,
          0.0266423337161541,
          0.09594602882862091,
          -0.008571824058890343,
          0.0820227786898613,
          -0.008068354800343513,
          0.0713542103767395,
          0.00580484326928854,
          0.09080217033624649,
          0.001047512167133391,
          0.014972473494708538,
          -0.12263704091310501,
          -0.027305910363793373,
          -0.009967463091015816,
          -0.04333800449967384,
          0.05903187021613121,
          -0.11780162155628204,
          0.0694282278418541,
          -0.10091569274663925,
          -0.13138456642627716,
          0.009100787341594696,
          -0.07969339936971664,
          0.05109069123864174,
          -0.022856194525957108,
          -0.05529174953699112,
          0.08889830857515335,
          -0.09995125234127045,
          0.03334803506731987,
          -0.14293989539146423,
          -0.1227913498878479,
          -0.02460659109055996,
          -0.0018144578207284212,
          -0.12465029954910278,
          -0.03960591182112694,
          0.05640462413430214,
          0.1492929458618164,
          0.09756987541913986,
          -0.043291401118040085,
          -0.0399792306125164,
          0.10603080689907074,
          -0.07186617702245712,
          -0.0116355549544096,
          -0.06332274526357651,
          -0.08112494647502899,
          0.040858566761016846,
          0.03544138744473457,
          0.1017729714512825,
          0.10656573623418808,
          -0.09057731181383133,
          0.12477311491966248,
          0.05259636789560318,
          -0.03189674764871597,
          0.08216653019189835,
          0.16774983704090118,
          -0.17025668919086456,
          0.07336820662021637,
          0.07973423600196838,
          0.10475380718708038,
          -0.0437895767390728,
          0.1064988449215889,
          0.12007370591163635
        ],
        [
          0.042152851819992065,
          -0.07308542728424072,
          -0.04773712158203125,
          0.010998610407114029,
          0.08996139466762543,
          0.10671674460172653,
          0.03281020373106003,
          0.04407669976353645,
          -0.10589328408241272,
          0.06997208297252655,
          0.1061818078160286,
          0.16918691992759705,
          0.08608455955982208,
          0.04795871675014496,
          -0.035963188856840134,
          -0.1152317002415657,
          0.0864577367901802,
          -0.10528287291526794,
          0.06510955840349197,
          -0.1360444724559784,
          -0.025660241022706032,
          -0.12285526841878891,
          -0.03663736209273338,
          -0.05876067653298378,
          0.09627864509820938,
          0.07307732850313187,
          0.11555638164281845,
          0.1017792671918869,
          0.041971687227487564,
          -0.011579135432839394,
          0.08012139797210693,
          -0.02489674836397171,
          0.003941394854336977,
          0.010280905291438103,
          -0.06051727384328842,
          -0.06136284023523331,
          -0.07670778036117554,
          0.07946338504552841,
          -0.07291890680789948,
          0.10884075611829758,
          0.003943709656596184,
          -0.03673126921057701,
          -0.043521832674741745,
          0.11087718605995178,
          0.11138823628425598,
          0.0720566064119339,
          0.01743541844189167,
          0.15803194046020508,
          0.1238451823592186,
          0.06350059062242508,
          -0.08390305191278458,
          0.057427894324064255,
          0.1077018603682518,
          -0.11817792057991028,
          -0.022099236026406288,
          -0.04528135061264038,
          0.10648965835571289,
          -0.008630109019577503,
          -0.10069233924150467,
          -0.058190952986478806,
          0.059544842690229416,
          -0.1530742645263672,
          -0.05723276361823082,
          0.03204302117228508
        ],
        [
          -0.045272067189216614,
          0.04712582379579544,
          0.012762472964823246,
          0.05591839924454689,
          -0.0009685952682048082,
          -0.013543501496315002,
          -0.11145738512277603,
          -0.049369994550943375,
          0.028596794232726097,
          0.036238037049770355,
          -0.017451584339141846,
          0.02614310011267662,
          -0.020904678851366043,
          -0.0049924664199352264,
          0.09165874123573303,
          0.08306297659873962,
          0.02217085473239422,
          -0.028163380920886993,
          0.002953157527372241,
          -0.06468533724546432,
          0.0935012623667717,
          0.08868764340877533,
          -0.05023369938135147,
          -0.025145133957266808,
          -0.05799147114157677,
          -0.028899339959025383,
          -0.055079009383916855,
          -0.06760939955711365,
          0.08059870451688766,
          0.05495920404791832,
          -0.10626858472824097,
          0.010374472476541996,
          0.15011048316955566,
          0.04329230636358261,
          0.10302282124757767,
          0.022549986839294434,
          0.005595209077000618,
          0.11852429807186127,
          0.05264962464570999,
          0.050840042531490326,
          -0.022788455709815025,
          0.05931368097662926,
          0.04329304024577141,
          0.044040292501449585,
          0.11737306416034698,
          0.003391606966033578,
          -0.0769987627863884,
          0.044146448373794556,
          -0.04705265536904335,
          0.05953775718808174,
          0.07044915854930878,
          0.11424075812101364,
          0.10052187740802765,
          -0.09671703726053238,
          -0.016976622864603996,
          0.12189599871635437,
          -0.03733354061841965,
          0.06622473150491714,
          0.0026998333632946014,
          0.12736821174621582,
          0.08527635782957077,
          -0.052471280097961426,
          -0.010130752809345722,
          -0.1059495061635971
        ],
        [
          -0.14634399116039276,
          0.012306141667068005,
          0.026600677520036697,
          -0.11245917528867722,
          -0.08028950542211533,
          0.09630893915891647,
          0.05071333795785904,
          0.0010847076773643494,
          -0.05870528891682625,
          -0.013240608386695385,
          0.08443941920995712,
          -0.01049706619232893,
          0.04976840317249298,
          0.06476860493421555,
          -0.03716630861163139,
          -0.024287261068820953,
          0.07354147732257843,
          0.046966321766376495,
          -0.07514749467372894,
          -0.02629394270479679,
          -0.1177213042974472,
          -0.014819510281085968,
          0.09611154347658157,
          -0.0977494865655899,
          -0.07123959064483643,
          0.024106666445732117,
          -0.1400400996208191,
          0.04977259412407875,
          0.10145740211009979,
          -0.051880400627851486,
          -0.14576880633831024,
          -0.0773354172706604,
          -0.20728455483913422,
          -0.13790050148963928,
          -0.024131039157509804,
          -0.08382776379585266,
          -0.04619049280881882,
          0.17791208624839783,
          0.022098783403635025,
          0.04802544787526131,
          -0.038993675261735916,
          -0.04138444736599922,
          0.04193250462412834,
          -0.12056127190589905,
          0.060250937938690186,
          -0.034390319138765335,
          -0.07737729698419571,
          -0.0129048777744174,
          -0.10094556957483292,
          -0.05152277275919914,
          0.04703954607248306,
          -0.01982244849205017,
          0.0335761122405529,
          0.13556882739067078,
          -0.04327121004462242,
          0.004053195938467979,
          -0.04077524691820145,
          0.038034457713365555,
          -0.0002141037693945691,
          -0.07910245656967163,
          0.030576439574360847,
          -0.018790075555443764,
          0.1272071897983551,
          0.0832708403468132
        ],
        [
          -0.09278667718172073,
          0.07326605916023254,
          -0.14146527647972107,
          -0.08890162408351898,
          0.10779495537281036,
          0.0266821701079607,
          0.07722214609384537,
          -0.07504134625196457,
          -0.11638880521059036,
          -0.1356213241815567,
          -0.012637981213629246,
          -0.1113080233335495,
          0.050606779754161835,
          0.06624309718608856,
          -0.022092118859291077,
          -0.08946196734905243,
          -0.10844217240810394,
          0.1272166669368744,
          -0.005460825748741627,
          -0.06918725371360779,
          -0.030475053936243057,
          -0.07805167883634567,
          -0.0949685275554657,
          0.046539511531591415,
          0.04500005394220352,
          0.15912798047065735,
          -0.06628762930631638,
          0.09325678646564484,
          -0.06736145913600922,
          -0.1393020898103714,
          -0.06459151953458786,
          -0.12823249399662018,
          -0.004520620685070753,
          0.019893983379006386,
          -0.06420638412237167,
          0.09709793329238892,
          -0.04735476151108742,
          0.0531519278883934,
          -0.0012831471394747496,
          -0.08527453988790512,
          0.09819868952035904,
          0.16987651586532593,
          0.0761260911822319,
          -0.002142475452274084,
          0.06185512617230415,
          0.1218186542391777,
          0.07506045699119568,
          -0.07950267940759659,
          0.05523201823234558,
          0.05490976199507713,
          0.0888548269867897,
          -0.06417253613471985,
          -0.05870828777551651,
          -0.04677063226699829,
          0.048251379281282425,
          -0.061626385897397995,
          0.000314413191517815,
          0.04979211837053299,
          0.06276458501815796,
          -0.151479572057724,
          -0.0882783830165863,
          0.12130478024482727,
          -0.038757242262363434,
          0.10123942792415619
        ],
        [
          0.09796671569347382,
          -0.05347879230976105,
          0.09359252452850342,
          -0.03242695704102516,
          -0.06016160920262337,
          -0.06559582054615021,
          0.12578114867210388,
          -0.09061050415039062,
          0.11705001443624496,
          -0.048042260110378265,
          0.011878118850290775,
          0.0686858668923378,
          -0.06057053804397583,
          0.1044096052646637,
          0.052447609603405,
          -0.10537192225456238,
          0.10810628533363342,
          0.06316184997558594,
          0.023343635722994804,
          -0.023076767101883888,
          0.006946161855012178,
          0.08449027687311172,
          -0.08103802800178528,
          0.03609146177768707,
          -0.03212369978427887,
          0.03633703663945198,
          0.11457441002130508,
          -0.005164516624063253,
          0.04878796637058258,
          -0.009480518288910389,
          0.0771215409040451,
          0.0120313735678792,
          0.10420729964971542,
          0.06537887454032898,
          0.16947761178016663,
          0.1156190037727356,
          0.02560335025191307,
          0.03964652866125107,
          -0.01634208671748638,
          0.042556408792734146,
          -0.1058376356959343,
          0.018057292327284813,
          -0.0618453323841095,
          -0.017515618354082108,
          -0.10754779726266861,
          0.11594977974891663,
          0.06534721702337265,
          0.03600079566240311,
          0.12747874855995178,
          0.09972748160362244,
          0.01575395278632641,
          -0.07989361882209778,
          0.07872919738292694,
          0.05151753127574921,
          0.013202423229813576,
          -0.027750439941883087,
          0.04744695499539375,
          -0.12164288759231567,
          0.10031691938638687,
          0.11441880464553833,
          0.10141719877719879,
          -0.11776893585920334,
          -0.03126323223114014,
          -0.08294316381216049
        ],
        [
          0.03241362422704697,
          -0.03263060748577118,
          0.1549922227859497,
          -0.10204413533210754,
          -0.046884242445230484,
          -0.12750020623207092,
          0.06744640320539474,
          -0.08312495797872543,
          0.013684429228305817,
          -0.015768954530358315,
          0.10969322174787521,
          0.08647410571575165,
          0.021267607808113098,
          -0.058535072952508926,
          0.10693404078483582,
          0.0699065774679184,
          -0.024903299286961555,
          -0.022675424814224243,
          -0.11506738513708115,
          -0.1296103596687317,
          0.12345392256975174,
          -0.019048210233449936,
          0.045966122299432755,
          0.002519659698009491,
          0.023545194417238235,
          0.028135111555457115,
          -0.05975985899567604,
          -0.08019614964723587,
          -0.015063069760799408,
          -0.06919227540493011,
          -0.049253199249506,
          0.08770853281021118,
          0.09191907197237015,
          -0.06921134889125824,
          0.06640643626451492,
          0.046118538826704025,
          -0.06685888022184372,
          0.004917559679597616,
          0.030131183564662933,
          0.09778027981519699,
          0.02081933617591858,
          0.04072453826665878,
          -0.11232148110866547,
          0.02915560081601143,
          -0.031035155057907104,
          0.12089142203330994,
          0.0420723557472229,
          -0.014794480986893177,
          0.050672825425863266,
          -0.03489551320672035,
          0.05160294100642204,
          -0.018522266298532486,
          0.09200495481491089,
          0.07164815068244934,
          0.11408605426549911,
          -0.05034326761960983,
          -0.11976798623800278,
          0.02993711642920971,
          -0.00989824254065752,
          0.17936553061008453,
          0.05004730075597763,
          -0.10858393460512161,
          0.07757294923067093,
          -0.11920357495546341
        ],
        [
          0.02580185979604721,
          0.08879776298999786,
          -0.006154514383524656,
          -0.030526600778102875,
          0.09413199871778488,
          0.047634758055210114,
          0.10320687294006348,
          0.040358565747737885,
          -0.04613923653960228,
          -0.006466241087764502,
          0.06265249103307724,
          -0.03786547854542732,
          -0.003940276801586151,
          0.09607531875371933,
          0.1004466712474823,
          0.021980350837111473,
          -0.020600534975528717,
          -0.057552069425582886,
          -0.10987985134124756,
          0.038947876542806625,
          -0.07195848226547241,
          0.138578861951828,
          -0.12988266348838806,
          0.08008698374032974,
          -0.1311473697423935,
          0.08895358443260193,
          0.010628803633153439,
          -0.1357075572013855,
          0.08511193841695786,
          -0.10917156934738159,
          -0.007980776950716972,
          -0.026778969913721085,
          -0.0227682925760746,
          0.028373153880238533,
          0.05544406175613403,
          0.11423119902610779,
          -0.10703305900096893,
          -0.08676491677761078,
          0.12004408240318298,
          -0.08603405952453613,
          0.09886155277490616,
          -0.06721653789281845,
          -0.010755459778010845,
          0.018139274790883064,
          -0.019142471253871918,
          0.14010199904441833,
          0.05241287499666214,
          0.06772908568382263,
          -0.09385839849710464,
          0.04455748200416565,
          -0.06473769247531891,
          -0.007900306954979897,
          0.1330624371767044,
          -0.08183810114860535,
          0.003316418966278434,
          0.0023201622534543276,
          -0.10343319177627563,
          -0.12505315244197845,
          -0.08405149728059769,
          0.10103906691074371,
          -0.055666547268629074,
          0.09744593501091003,
          -0.077420175075531,
          -0.0033206490334123373
        ],
        [
          0.08494406193494797,
          0.09968128800392151,
          -0.03304025158286095,
          0.013426619581878185,
          0.06631333380937576,
          -0.047367729246616364,
          0.06460468471050262,
          0.005476966965943575,
          0.024109594523906708,
          -0.11151725053787231,
          -0.040812328457832336,
          -0.05259618163108826,
          0.04673080891370773,
          -0.030358944088220596,
          -0.0611262284219265,
          -0.0820639431476593,
          -0.02699095942080021,
          -0.052111539989709854,
          -0.026852227747440338,
          -0.05453399941325188,
          0.01285249087959528,
          0.0416431650519371,
          0.08809570223093033,
          0.007941469550132751,
          0.022061146795749664,
          0.12874995172023773,
          0.04129631817340851,
          -0.01733386516571045,
          0.04063526540994644,
          0.04632452130317688,
          -0.11861233413219452,
          0.0680013969540596,
          0.026248987764120102,
          -0.07467731833457947,
          -0.12806951999664307,
          0.036962009966373444,
          0.04751072824001312,
          -0.05763568729162216,
          0.017281215637922287,
          -0.009331226348876953,
          -0.01383113767951727,
          -0.08316294103860855,
          0.11788056045770645,
          -0.024591222405433655,
          0.02462928183376789,
          0.14880189299583435,
          0.04612310230731964,
          0.05660077556967735,
          -0.09225395321846008,
          -0.026326734572649002,
          -0.07411546260118484,
          0.003464622888714075,
          0.006893886253237724,
          0.08477228134870529,
          0.098228819668293,
          0.016829408705234528,
          0.1338258981704712,
          -0.11393532156944275,
          -0.06048622354865074,
          -0.2126028686761856,
          0.12163208425045013,
          -0.13219021260738373,
          0.07215067744255066,
          -0.06596726924180984
        ],
        [
          -0.07780326157808304,
          0.01032596081495285,
          0.01150896679610014,
          -0.05208592861890793,
          -0.04567856714129448,
          0.1477867066860199,
          0.07870392501354218,
          0.04896033927798271,
          -0.02085881680250168,
          0.01692003756761551,
          -0.04769118130207062,
          -0.16809290647506714,
          0.11552640050649643,
          0.1279119998216629,
          -0.04720977321267128,
          0.1505628526210785,
          -0.14798671007156372,
          0.14247342944145203,
          -0.13889572024345398,
          -0.04615179821848869,
          -0.056620609015226364,
          -0.12695668637752533,
          0.06832364946603775,
          -0.07013000547885895,
          -0.08086007088422775,
          0.06890936940908432,
          -0.020423011854290962,
          -0.002173720160499215,
          -0.03904520347714424,
          -0.1450415700674057,
          0.00803954154253006,
          -0.014668326824903488,
          0.05988909304141998,
          -0.1389121562242508,
          -0.02342144399881363,
          -0.13329002261161804,
          -0.16358990967273712,
          -0.05336075648665428,
          -0.09553443640470505,
          -0.182108074426651,
          0.0660448670387268,
          0.16751986742019653,
          -0.05622035264968872,
          0.11062038689851761,
          -0.024244574829936028,
          0.025032754987478256,
          0.04642421379685402,
          -0.03589765354990959,
          0.006611754186451435,
          -0.05629120394587517,
          0.06796509027481079,
          0.04029112681746483,
          -0.04651324450969696,
          0.16462834179401398,
          0.03353745862841606,
          0.04083172231912613,
          0.08716265857219696,
          -0.10445709526538849,
          -0.039654433727264404,
          0.023586541414260864,
          0.01863964833319187,
          0.15438899397850037,
          -0.052108969539403915,
          0.010614892467856407
        ],
        [
          0.10404957830905914,
          -0.012946797534823418,
          0.13280612230300903,
          0.034999098628759384,
          -0.007360037881880999,
          -0.04086901247501373,
          0.13705550134181976,
          -0.01867942325770855,
          0.047721974551677704,
          0.10994186997413635,
          0.1174997016787529,
          -0.028073959052562714,
          0.055365804582834244,
          -0.05957372486591339,
          0.08486942946910858,
          0.06888783723115921,
          0.021641846746206284,
          -0.11149746924638748,
          -0.012967920862138271,
          -0.12384707480669022,
          0.07033277302980423,
          0.1143890917301178,
          0.04602306708693504,
          -0.014631057158112526,
          0.12652629613876343,
          -0.01691734977066517,
          0.15263748168945312,
          -0.035367246717214584,
          -0.06908845156431198,
          0.056704483926296234,
          -0.0763469859957695,
          0.03433355316519737,
          -0.016693033277988434,
          -0.02123788744211197,
          0.02745993249118328,
          -0.13006915152072906,
          -0.024734923616051674,
          -0.15940837562084198,
          0.04128053039312363,
          -0.003530350513756275,
          0.10148666054010391,
          -0.015575051307678223,
          -0.017572417855262756,
          0.08438798040151596,
          -0.15241263806819916,
          -0.03331870958209038,
          -0.002908885944634676,
          -0.11667736619710922,
          -0.09259926527738571,
          0.05061620473861694,
          -0.08202635496854782,
          0.014659835025668144,
          0.11595860123634338,
          0.05926387757062912,
          -0.01894420012831688,
          -0.07240474224090576,
          -0.15812328457832336,
          0.04619482904672623,
          -0.12565891444683075,
          0.10253596305847168,
          -0.03218267485499382,
          -0.03461335226893425,
          0.0830247551202774,
          -0.07972905784845352
        ],
        [
          -0.0435582771897316,
          0.05818967893719673,
          0.017549391835927963,
          0.08902162313461304,
          -0.020487172529101372,
          -0.01798403076827526,
          0.05472388118505478,
          -0.025558175519108772,
          0.011044646613299847,
          -0.04094189405441284,
          0.10851500183343887,
          -0.11424184590578079,
          -0.027310535311698914,
          -0.055158741772174835,
          -0.03161636367440224,
          0.03648236766457558,
          -0.06458918005228043,
          -0.09270702302455902,
          0.034389428794384,
          0.11535361409187317,
          -0.13662153482437134,
          0.04949413612484932,
          0.06066839024424553,
          0.026333818212151527,
          0.0682726576924324,
          0.09478709846735,
          -0.012051456607878208,
          0.07360926270484924,
          0.03583213686943054,
          -0.09540781378746033,
          -0.05226550251245499,
          0.06910943239927292,
          0.005707731004804373,
          -0.1124223917722702,
          0.02732604742050171,
          0.03392885997891426,
          0.08259935677051544,
          -0.1709662228822708,
          -0.0033633026760071516,
          0.13283152878284454,
          0.05968446657061577,
          0.025083821266889572,
          0.04470795765519142,
          0.11616147309541702,
          -0.0026911012828350067,
          0.14344383776187897,
          0.0004915936733596027,
          0.10534718632698059,
          0.11255746334791183,
          0.037316106259822845,
          -0.002753990702331066,
          0.09975888580083847,
          -0.049164824187755585,
          0.051221176981925964,
          0.07838989049196243,
          -0.10982223600149155,
          -0.08205841481685638,
          0.11688896268606186,
          -0.04226075857877731,
          0.08093337714672089,
          -0.05318576842546463,
          -0.08849923312664032,
          -0.026725217700004578,
          -0.05944089964032173
        ],
        [
          0.0574842132627964,
          0.053101085126399994,
          -0.07794905453920364,
          0.12109113484621048,
          0.13725414872169495,
          0.05438641831278801,
          -0.06368410587310791,
          -0.10553732514381409,
          0.01631287857890129,
          0.025271423161029816,
          -0.09966953843832016,
          -0.06187682971358299,
          -0.14608055353164673,
          0.10550834983587265,
          0.10736159980297089,
          0.06421937793493271,
          -0.09486459940671921,
          0.10172823816537857,
          0.054042186588048935,
          -0.10525181144475937,
          -0.06680993735790253,
          -0.0655105859041214,
          0.13233157992362976,
          -0.09836306422948837,
          0.03241945803165436,
          -0.08940264582633972,
          -0.055062707513570786,
          0.060461919754743576,
          0.010859698988497257,
          0.04590582475066185,
          0.06940872967243195,
          -0.03647739067673683,
          -0.043874237686395645,
          -0.06951944530010223,
          -0.01451070699840784,
          -0.02346987836062908,
          0.02617737464606762,
          0.07495510578155518,
          -0.0066714477725327015,
          0.024824559688568115,
          0.11980891972780228,
          0.050101958215236664,
          -0.023084452375769615,
          0.096500925719738,
          0.09293953329324722,
          -0.004679904785007238,
          0.01214348990470171,
          0.10484781116247177,
          0.12268290668725967,
          0.05389617756009102,
          0.10396090894937515,
          0.11323979496955872,
          0.034289367496967316,
          0.04307347908616066,
          -0.09314118325710297,
          -0.06806105375289917,
          0.08326069265604019,
          -0.14659608900547028,
          0.11773395538330078,
          0.12158278375864029,
          0.03504040837287903,
          -0.04057825356721878,
          0.11314116418361664,
          0.13523831963539124
        ],
        [
          0.14391137659549713,
          -0.02346113696694374,
          0.19155529141426086,
          -0.04914090409874916,
          -0.1254388988018036,
          0.11936972290277481,
          -0.059399135410785675,
          0.06145638972520828,
          0.0272729080170393,
          0.039407700300216675,
          0.036920543760061264,
          0.0933285653591156,
          -0.044012539088726044,
          -0.023428184911608696,
          -0.047928087413311005,
          0.07196597754955292,
          0.15967783331871033,
          0.0305233933031559,
          0.05947062373161316,
          -0.00308751268312335,
          0.08464012295007706,
          -0.091473788022995,
          0.03866685926914215,
          -0.1391921490430832,
          0.120148666203022,
